digraph Tree {
node [shape=box, fontname="helvetica"] ;
edge [fontname="helvetica"] ;
0 [label="x[0] <= 31.5\ngini = 0.436\nsamples = 700\nvalue = [225, 475]"] ;
1 [label="x[1] <= 3.5\ngini = 0.405\nsamples = 582\nvalue = [164, 418]"] ;
0 -> 1 [labeldistance=2.5, labelangle=45, headlabel="True"] ;
2 [label="x[3] <= 10975.5\ngini = 0.378\nsamples = 533\nvalue = [135, 398]"] ;
1 -> 2 ;
3 [label="x[10] <= 25.5\ngini = 0.367\nsamples = 525\nvalue = [127, 398]"] ;
2 -> 3 ;
4 [label="x[3] <= 3361.0\ngini = 0.474\nsamples = 106\nvalue = [41, 65]"] ;
3 -> 4 ;
5 [label="x[0] <= 16.5\ngini = 0.491\nsamples = 92\nvalue = [40, 52]"] ;
4 -> 5 ;
6 [label="x[1] <= 1.5\ngini = 0.436\nsamples = 56\nvalue = [18, 38]"] ;
5 -> 6 ;
7 [label="gini = 0.0\nsamples = 8\nvalue = [0, 8]"] ;
6 -> 7 ;
8 [label="x[11] <= 2.5\ngini = 0.469\nsamples = 48\nvalue = [18, 30]"] ;
6 -> 8 ;
9 [label="x[14] <= 3.5\ngini = 0.32\nsamples = 5\nvalue = [4, 1]"] ;
8 -> 9 ;
10 [label="gini = 0.0\nsamples = 3\nvalue = [3, 0]"] ;
9 -> 10 ;
11 [label="x[11] <= 1.5\ngini = 0.5\nsamples = 2\nvalue = [1, 1]"] ;
9 -> 11 ;
12 [label="gini = 0.0\nsamples = 1\nvalue = [0, 1]"] ;
11 -> 12 ;
13 [label="gini = 0.0\nsamples = 1\nvalue = [1, 0]"] ;
11 -> 13 ;
14 [label="x[7] <= 3.5\ngini = 0.439\nsamples = 43\nvalue = [14, 29]"] ;
8 -> 14 ;
15 [label="x[3] <= 1217.0\ngini = 0.472\nsamples = 34\nvalue = [13, 21]"] ;
14 -> 15 ;
16 [label="x[5] <= 3.5\ngini = 0.32\nsamples = 15\nvalue = [3, 12]"] ;
15 -> 16 ;
17 [label="x[3] <= 451.0\ngini = 0.153\nsamples = 12\nvalue = [1, 11]"] ;
16 -> 17 ;
18 [label="x[0] <= 7.5\ngini = 0.444\nsamples = 3\nvalue = [1, 2]"] ;
17 -> 18 ;
19 [label="gini = 0.0\nsamples = 1\nvalue = [1, 0]"] ;
18 -> 19 ;
20 [label="gini = 0.0\nsamples = 2\nvalue = [0, 2]"] ;
18 -> 20 ;
21 [label="gini = 0.0\nsamples = 9\nvalue = [0, 9]"] ;
17 -> 21 ;
22 [label="x[9] <= 3.5\ngini = 0.444\nsamples = 3\nvalue = [2, 1]"] ;
16 -> 22 ;
23 [label="gini = 0.0\nsamples = 2\nvalue = [2, 0]"] ;
22 -> 23 ;
24 [label="gini = 0.0\nsamples = 1\nvalue = [0, 1]"] ;
22 -> 24 ;
25 [label="x[3] <= 2040.5\ngini = 0.499\nsamples = 19\nvalue = [10, 9]"] ;
15 -> 25 ;
26 [label="x[10] <= 23.5\ngini = 0.426\nsamples = 13\nvalue = [9, 4]"] ;
25 -> 26 ;
27 [label="x[2] <= 2.0\ngini = 0.494\nsamples = 9\nvalue = [5, 4]"] ;
26 -> 27 ;
28 [label="gini = 0.0\nsamples = 3\nvalue = [3, 0]"] ;
27 -> 28 ;
29 [label="x[10] <= 21.0\ngini = 0.444\nsamples = 6\nvalue = [2, 4]"] ;
27 -> 29 ;
30 [label="x[4] <= 3.0\ngini = 0.444\nsamples = 3\nvalue = [2, 1]"] ;
29 -> 30 ;
31 [label="gini = 0.0\nsamples = 2\nvalue = [2, 0]"] ;
30 -> 31 ;
32 [label="gini = 0.0\nsamples = 1\nvalue = [0, 1]"] ;
30 -> 32 ;
33 [label="gini = 0.0\nsamples = 3\nvalue = [0, 3]"] ;
29 -> 33 ;
34 [label="gini = 0.0\nsamples = 4\nvalue = [4, 0]"] ;
26 -> 34 ;
35 [label="x[10] <= 24.5\ngini = 0.278\nsamples = 6\nvalue = [1, 5]"] ;
25 -> 35 ;
36 [label="gini = 0.0\nsamples = 4\nvalue = [0, 4]"] ;
35 -> 36 ;
37 [label="x[5] <= 2.0\ngini = 0.5\nsamples = 2\nvalue = [1, 1]"] ;
35 -> 37 ;
38 [label="gini = 0.0\nsamples = 1\nvalue = [1, 0]"] ;
37 -> 38 ;
39 [label="gini = 0.0\nsamples = 1\nvalue = [0, 1]"] ;
37 -> 39 ;
40 [label="x[5] <= 3.5\ngini = 0.198\nsamples = 9\nvalue = [1, 8]"] ;
14 -> 40 ;
41 [label="gini = 0.0\nsamples = 7\nvalue = [0, 7]"] ;
40 -> 41 ;
42 [label="x[9] <= 1.5\ngini = 0.5\nsamples = 2\nvalue = [1, 1]"] ;
40 -> 42 ;
43 [label="gini = 0.0\nsamples = 1\nvalue = [0, 1]"] ;
42 -> 43 ;
44 [label="gini = 0.0\nsamples = 1\nvalue = [1, 0]"] ;
42 -> 44 ;
45 [label="x[2] <= 2.0\ngini = 0.475\nsamples = 36\nvalue = [22, 14]"] ;
5 -> 45 ;
46 [label="x[4] <= 1.5\ngini = 0.444\nsamples = 15\nvalue = [5, 10]"] ;
45 -> 46 ;
47 [label="gini = 0.0\nsamples = 5\nvalue = [0, 5]"] ;
46 -> 47 ;
48 [label="x[7] <= 3.5\ngini = 0.5\nsamples = 10\nvalue = [5, 5]"] ;
46 -> 48 ;
49 [label="x[12] <= 2.0\ngini = 0.469\nsamples = 8\nvalue = [3, 5]"] ;
48 -> 49 ;
50 [label="x[6] <= 3.5\ngini = 0.5\nsamples = 6\nvalue = [3, 3]"] ;
49 -> 50 ;
51 [label="x[1] <= 1.5\ngini = 0.375\nsamples = 4\nvalue = [3, 1]"] ;
50 -> 51 ;
52 [label="gini = 0.0\nsamples = 1\nvalue = [0, 1]"] ;
51 -> 52 ;
53 [label="gini = 0.0\nsamples = 3\nvalue = [3, 0]"] ;
51 -> 53 ;
54 [label="gini = 0.0\nsamples = 2\nvalue = [0, 2]"] ;
50 -> 54 ;
55 [label="gini = 0.0\nsamples = 2\nvalue = [0, 2]"] ;
49 -> 55 ;
56 [label="gini = 0.0\nsamples = 2\nvalue = [2, 0]"] ;
48 -> 56 ;
57 [label="x[1] <= 1.5\ngini = 0.308\nsamples = 21\nvalue = [17, 4]"] ;
45 -> 57 ;
58 [label="x[10] <= 23.5\ngini = 0.444\nsamples = 3\nvalue = [1, 2]"] ;
57 -> 58 ;
59 [label="gini = 0.0\nsamples = 2\nvalue = [0, 2]"] ;
58 -> 59 ;
60 [label="gini = 0.0\nsamples = 1\nvalue = [1, 0]"] ;
58 -> 60 ;
61 [label="x[10] <= 23.5\ngini = 0.198\nsamples = 18\nvalue = [16, 2]"] ;
57 -> 61 ;
62 [label="gini = 0.0\nsamples = 11\nvalue = [11, 0]"] ;
61 -> 62 ;
63 [label="x[6] <= 2.5\ngini = 0.408\nsamples = 7\nvalue = [5, 2]"] ;
61 -> 63 ;
64 [label="gini = 0.0\nsamples = 1\nvalue = [0, 1]"] ;
63 -> 64 ;
65 [label="x[4] <= 1.5\ngini = 0.278\nsamples = 6\nvalue = [5, 1]"] ;
63 -> 65 ;
66 [label="x[3] <= 1327.0\ngini = 0.5\nsamples = 2\nvalue = [1, 1]"] ;
65 -> 66 ;
67 [label="gini = 0.0\nsamples = 1\nvalue = [0, 1]"] ;
66 -> 67 ;
68 [label="gini = 0.0\nsamples = 1\nvalue = [1, 0]"] ;
66 -> 68 ;
69 [label="gini = 0.0\nsamples = 4\nvalue = [4, 0]"] ;
65 -> 69 ;
70 [label="x[11] <= 1.5\ngini = 0.133\nsamples = 14\nvalue = [1, 13]"] ;
4 -> 70 ;
71 [label="x[9] <= 3.0\ngini = 0.5\nsamples = 2\nvalue = [1, 1]"] ;
70 -> 71 ;
72 [label="gini = 0.0\nsamples = 1\nvalue = [0, 1]"] ;
71 -> 72 ;
73 [label="gini = 0.0\nsamples = 1\nvalue = [1, 0]"] ;
71 -> 73 ;
74 [label="gini = 0.0\nsamples = 12\nvalue = [0, 12]"] ;
70 -> 74 ;
75 [label="x[0] <= 11.5\ngini = 0.326\nsamples = 419\nvalue = [86, 333]"] ;
3 -> 75 ;
76 [label="x[10] <= 34.5\ngini = 0.175\nsamples = 103\nvalue = [10, 93]"] ;
75 -> 76 ;
77 [label="x[9] <= 3.5\ngini = 0.307\nsamples = 37\nvalue = [7, 30]"] ;
76 -> 77 ;
78 [label="x[3] <= 1091.5\ngini = 0.213\nsamples = 33\nvalue = [4, 29]"] ;
77 -> 78 ;
79 [label="x[0] <= 7.5\ngini = 0.469\nsamples = 8\nvalue = [3, 5]"] ;
78 -> 79 ;
80 [label="gini = 0.0\nsamples = 5\nvalue = [0, 5]"] ;
79 -> 80 ;
81 [label="gini = 0.0\nsamples = 3\nvalue = [3, 0]"] ;
79 -> 81 ;
82 [label="x[14] <= 2.0\ngini = 0.077\nsamples = 25\nvalue = [1, 24]"] ;
78 -> 82 ;
83 [label="x[12] <= 2.0\ngini = 0.5\nsamples = 2\nvalue = [1, 1]"] ;
82 -> 83 ;
84 [label="gini = 0.0\nsamples = 1\nvalue = [1, 0]"] ;
83 -> 84 ;
85 [label="gini = 0.0\nsamples = 1\nvalue = [0, 1]"] ;
83 -> 85 ;
86 [label="gini = 0.0\nsamples = 23\nvalue = [0, 23]"] ;
82 -> 86 ;
87 [label="x[2] <= 4.5\ngini = 0.375\nsamples = 4\nvalue = [3, 1]"] ;
77 -> 87 ;
88 [label="gini = 0.0\nsamples = 3\nvalue = [3, 0]"] ;
87 -> 88 ;
89 [label="gini = 0.0\nsamples = 1\nvalue = [0, 1]"] ;
87 -> 89 ;
90 [label="x[14] <= 1.5\ngini = 0.087\nsamples = 66\nvalue = [3, 63]"] ;
76 -> 90 ;
91 [label="x[12] <= 2.5\ngini = 0.346\nsamples = 9\nvalue = [2, 7]"] ;
90 -> 91 ;
92 [label="x[1] <= 2.5\ngini = 0.219\nsamples = 8\nvalue = [1, 7]"] ;
91 -> 92 ;
93 [label="gini = 0.0\nsamples = 6\nvalue = [0, 6]"] ;
92 -> 93 ;
94 [label="x[13] <= 1.5\ngini = 0.5\nsamples = 2\nvalue = [1, 1]"] ;
92 -> 94 ;
95 [label="gini = 0.0\nsamples = 1\nvalue = [1, 0]"] ;
94 -> 95 ;
96 [label="gini = 0.0\nsamples = 1\nvalue = [0, 1]"] ;
94 -> 96 ;
97 [label="gini = 0.0\nsamples = 1\nvalue = [1, 0]"] ;
91 -> 97 ;
98 [label="x[4] <= 4.5\ngini = 0.034\nsamples = 57\nvalue = [1, 56]"] ;
90 -> 98 ;
99 [label="gini = 0.0\nsamples = 50\nvalue = [0, 50]"] ;
98 -> 99 ;
100 [label="x[6] <= 1.5\ngini = 0.245\nsamples = 7\nvalue = [1, 6]"] ;
98 -> 100 ;
101 [label="gini = 0.0\nsamples = 1\nvalue = [1, 0]"] ;
100 -> 101 ;
102 [label="gini = 0.0\nsamples = 6\nvalue = [0, 6]"] ;
100 -> 102 ;
103 [label="x[3] <= 1389.5\ngini = 0.365\nsamples = 316\nvalue = [76, 240]"] ;
75 -> 103 ;
104 [label="x[11] <= 1.5\ngini = 0.465\nsamples = 76\nvalue = [28, 48]"] ;
103 -> 104 ;
105 [label="x[10] <= 43.0\ngini = 0.298\nsamples = 11\nvalue = [9, 2]"] ;
104 -> 105 ;
106 [label="x[9] <= 1.5\ngini = 0.18\nsamples = 10\nvalue = [9, 1]"] ;
105 -> 106 ;
107 [label="gini = 0.0\nsamples = 1\nvalue = [0, 1]"] ;
106 -> 107 ;
108 [label="gini = 0.0\nsamples = 9\nvalue = [9, 0]"] ;
106 -> 108 ;
109 [label="gini = 0.0\nsamples = 1\nvalue = [0, 1]"] ;
105 -> 109 ;
110 [label="x[13] <= 1.5\ngini = 0.414\nsamples = 65\nvalue = [19, 46]"] ;
104 -> 110 ;
111 [label="x[10] <= 28.5\ngini = 0.493\nsamples = 34\nvalue = [15, 19]"] ;
110 -> 111 ;
112 [label="x[3] <= 1293.5\ngini = 0.198\nsamples = 9\nvalue = [1, 8]"] ;
111 -> 112 ;
113 [label="gini = 0.0\nsamples = 8\nvalue = [0, 8]"] ;
112 -> 113 ;
114 [label="gini = 0.0\nsamples = 1\nvalue = [1, 0]"] ;
112 -> 114 ;
115 [label="x[16] <= 0.5\ngini = 0.493\nsamples = 25\nvalue = [14, 11]"] ;
111 -> 115 ;
116 [label="x[8] <= 3.5\ngini = 0.432\nsamples = 19\nvalue = [13, 6]"] ;
115 -> 116 ;
117 [label="x[10] <= 39.5\ngini = 0.36\nsamples = 17\nvalue = [13, 4]"] ;
116 -> 117 ;
118 [label="gini = 0.0\nsamples = 10\nvalue = [10, 0]"] ;
117 -> 118 ;
119 [label="x[2] <= 1.5\ngini = 0.49\nsamples = 7\nvalue = [3, 4]"] ;
117 -> 119 ;
120 [label="x[10] <= 44.0\ngini = 0.375\nsamples = 4\nvalue = [3, 1]"] ;
119 -> 120 ;
121 [label="gini = 0.0\nsamples = 1\nvalue = [0, 1]"] ;
120 -> 121 ;
122 [label="gini = 0.0\nsamples = 3\nvalue = [3, 0]"] ;
120 -> 122 ;
123 [label="gini = 0.0\nsamples = 3\nvalue = [0, 3]"] ;
119 -> 123 ;
124 [label="gini = 0.0\nsamples = 2\nvalue = [0, 2]"] ;
116 -> 124 ;
125 [label="x[2] <= 5.0\ngini = 0.278\nsamples = 6\nvalue = [1, 5]"] ;
115 -> 125 ;
126 [label="gini = 0.0\nsamples = 5\nvalue = [0, 5]"] ;
125 -> 126 ;
127 [label="gini = 0.0\nsamples = 1\nvalue = [1, 0]"] ;
125 -> 127 ;
128 [label="x[5] <= 4.5\ngini = 0.225\nsamples = 31\nvalue = [4, 27]"] ;
110 -> 128 ;
129 [label="x[10] <= 59.0\ngini = 0.133\nsamples = 28\nvalue = [2, 26]"] ;
128 -> 129 ;
130 [label="x[13] <= 2.5\ngini = 0.077\nsamples = 25\nvalue = [1, 24]"] ;
129 -> 130 ;
131 [label="gini = 0.0\nsamples = 22\nvalue = [0, 22]"] ;
130 -> 131 ;
132 [label="x[2] <= 2.5\ngini = 0.444\nsamples = 3\nvalue = [1, 2]"] ;
130 -> 132 ;
133 [label="gini = 0.0\nsamples = 2\nvalue = [0, 2]"] ;
132 -> 133 ;
134 [label="gini = 0.0\nsamples = 1\nvalue = [1, 0]"] ;
132 -> 134 ;
135 [label="x[3] <= 1064.5\ngini = 0.444\nsamples = 3\nvalue = [1, 2]"] ;
129 -> 135 ;
136 [label="gini = 0.0\nsamples = 2\nvalue = [0, 2]"] ;
135 -> 136 ;
137 [label="gini = 0.0\nsamples = 1\nvalue = [1, 0]"] ;
135 -> 137 ;
138 [label="x[15] <= 1.5\ngini = 0.444\nsamples = 3\nvalue = [2, 1]"] ;
128 -> 138 ;
139 [label="gini = 0.0\nsamples = 1\nvalue = [0, 1]"] ;
138 -> 139 ;
140 [label="gini = 0.0\nsamples = 2\nvalue = [2, 0]"] ;
138 -> 140 ;
141 [label="x[2] <= 1.5\ngini = 0.32\nsamples = 240\nvalue = [48, 192]"] ;
103 -> 141 ;
142 [label="x[1] <= 2.5\ngini = 0.158\nsamples = 58\nvalue = [5, 53]"] ;
141 -> 142 ;
143 [label="x[5] <= 4.5\ngini = 0.105\nsamples = 54\nvalue = [3, 51]"] ;
142 -> 143 ;
144 [label="x[5] <= 1.5\ngini = 0.038\nsamples = 51\nvalue = [1, 50]"] ;
143 -> 144 ;
145 [label="x[9] <= 3.5\ngini = 0.18\nsamples = 10\nvalue = [1, 9]"] ;
144 -> 145 ;
146 [label="gini = 0.0\nsamples = 7\nvalue = [0, 7]"] ;
145 -> 146 ;
147 [label="x[7] <= 2.0\ngini = 0.444\nsamples = 3\nvalue = [1, 2]"] ;
145 -> 147 ;
148 [label="x[3] <= 2810.0\ngini = 0.5\nsamples = 2\nvalue = [1, 1]"] ;
147 -> 148 ;
149 [label="gini = 0.0\nsamples = 1\nvalue = [1, 0]"] ;
148 -> 149 ;
150 [label="gini = 0.0\nsamples = 1\nvalue = [0, 1]"] ;
148 -> 150 ;
151 [label="gini = 0.0\nsamples = 1\nvalue = [0, 1]"] ;
147 -> 151 ;
152 [label="gini = 0.0\nsamples = 41\nvalue = [0, 41]"] ;
144 -> 152 ;
153 [label="x[3] <= 1616.0\ngini = 0.444\nsamples = 3\nvalue = [2, 1]"] ;
143 -> 153 ;
154 [label="gini = 0.0\nsamples = 1\nvalue = [0, 1]"] ;
153 -> 154 ;
155 [label="gini = 0.0\nsamples = 2\nvalue = [2, 0]"] ;
153 -> 155 ;
156 [label="x[5] <= 2.0\ngini = 0.5\nsamples = 4\nvalue = [2, 2]"] ;
142 -> 156 ;
157 [label="gini = 0.0\nsamples = 2\nvalue = [2, 0]"] ;
156 -> 157 ;
158 [label="gini = 0.0\nsamples = 2\nvalue = [0, 2]"] ;
156 -> 158 ;
159 [label="x[4] <= 1.5\ngini = 0.361\nsamples = 182\nvalue = [43, 139]"] ;
141 -> 159 ;
160 [label="x[12] <= 1.5\ngini = 0.157\nsamples = 35\nvalue = [3, 32]"] ;
159 -> 160 ;
161 [label="gini = 0.0\nsamples = 28\nvalue = [0, 28]"] ;
160 -> 161 ;
162 [label="x[0] <= 19.0\ngini = 0.49\nsamples = 7\nvalue = [3, 4]"] ;
160 -> 162 ;
163 [label="x[0] <= 15.0\ngini = 0.375\nsamples = 4\nvalue = [3, 1]"] ;
162 -> 163 ;
164 [label="gini = 0.0\nsamples = 1\nvalue = [0, 1]"] ;
163 -> 164 ;
165 [label="gini = 0.0\nsamples = 3\nvalue = [3, 0]"] ;
163 -> 165 ;
166 [label="gini = 0.0\nsamples = 3\nvalue = [0, 3]"] ;
162 -> 166 ;
167 [label="x[3] <= 1507.5\ngini = 0.396\nsamples = 147\nvalue = [40, 107]"] ;
159 -> 167 ;
168 [label="gini = 0.0\nsamples = 12\nvalue = [0, 12]"] ;
167 -> 168 ;
169 [label="x[9] <= 2.5\ngini = 0.417\nsamples = 135\nvalue = [40, 95]"] ;
167 -> 169 ;
170 [label="x[2] <= 2.5\ngini = 0.474\nsamples = 57\nvalue = [22, 35]"] ;
169 -> 170 ;
171 [label="gini = 0.0\nsamples = 3\nvalue = [3, 0]"] ;
170 -> 171 ;
172 [label="x[3] <= 4013.0\ngini = 0.456\nsamples = 54\nvalue = [19, 35]"] ;
170 -> 172 ;
173 [label="x[5] <= 4.5\ngini = 0.49\nsamples = 42\nvalue = [18, 24]"] ;
172 -> 173 ;
174 [label="x[3] <= 3896.5\ngini = 0.473\nsamples = 39\nvalue = [15, 24]"] ;
173 -> 174 ;
175 [label="x[11] <= 1.5\ngini = 0.444\nsamples = 36\nvalue = [12, 24]"] ;
174 -> 175 ;
176 [label="x[10] <= 31.5\ngini = 0.444\nsamples = 6\nvalue = [4, 2]"] ;
175 -> 176 ;
177 [label="gini = 0.0\nsamples = 2\nvalue = [0, 2]"] ;
176 -> 177 ;
178 [label="gini = 0.0\nsamples = 4\nvalue = [4, 0]"] ;
176 -> 178 ;
179 [label="x[10] <= 40.0\ngini = 0.391\nsamples = 30\nvalue = [8, 22]"] ;
175 -> 179 ;
180 [label="x[1] <= 1.5\ngini = 0.444\nsamples = 24\nvalue = [8, 16]"] ;
179 -> 180 ;
181 [label="x[8] <= 2.5\ngini = 0.278\nsamples = 12\nvalue = [2, 10]"] ;
180 -> 181 ;
182 [label="gini = 0.0\nsamples = 1\nvalue = [1, 0]"] ;
181 -> 182 ;
183 [label="x[3] <= 1961.5\ngini = 0.165\nsamples = 11\nvalue = [1, 10]"] ;
181 -> 183 ;
184 [label="x[14] <= 3.5\ngini = 0.5\nsamples = 2\nvalue = [1, 1]"] ;
183 -> 184 ;
185 [label="gini = 0.0\nsamples = 1\nvalue = [1, 0]"] ;
184 -> 185 ;
186 [label="gini = 0.0\nsamples = 1\nvalue = [0, 1]"] ;
184 -> 186 ;
187 [label="gini = 0.0\nsamples = 9\nvalue = [0, 9]"] ;
183 -> 187 ;
188 [label="x[6] <= 3.5\ngini = 0.5\nsamples = 12\nvalue = [6, 6]"] ;
180 -> 188 ;
189 [label="x[15] <= 1.5\ngini = 0.278\nsamples = 6\nvalue = [1, 5]"] ;
188 -> 189 ;
190 [label="gini = 0.0\nsamples = 4\nvalue = [0, 4]"] ;
189 -> 190 ;
191 [label="x[0] <= 15.0\ngini = 0.5\nsamples = 2\nvalue = [1, 1]"] ;
189 -> 191 ;
192 [label="gini = 0.0\nsamples = 1\nvalue = [0, 1]"] ;
191 -> 192 ;
193 [label="gini = 0.0\nsamples = 1\nvalue = [1, 0]"] ;
191 -> 193 ;
194 [label="x[4] <= 3.0\ngini = 0.278\nsamples = 6\nvalue = [5, 1]"] ;
188 -> 194 ;
195 [label="gini = 0.0\nsamples = 5\nvalue = [5, 0]"] ;
194 -> 195 ;
196 [label="gini = 0.0\nsamples = 1\nvalue = [0, 1]"] ;
194 -> 196 ;
197 [label="gini = 0.0\nsamples = 6\nvalue = [0, 6]"] ;
179 -> 197 ;
198 [label="gini = 0.0\nsamples = 3\nvalue = [3, 0]"] ;
174 -> 198 ;
199 [label="gini = 0.0\nsamples = 3\nvalue = [3, 0]"] ;
173 -> 199 ;
200 [label="x[7] <= 3.5\ngini = 0.153\nsamples = 12\nvalue = [1, 11]"] ;
172 -> 200 ;
201 [label="gini = 0.0\nsamples = 1\nvalue = [1, 0]"] ;
200 -> 201 ;
202 [label="gini = 0.0\nsamples = 11\nvalue = [0, 11]"] ;
200 -> 202 ;
203 [label="x[10] <= 41.0\ngini = 0.355\nsamples = 78\nvalue = [18, 60]"] ;
169 -> 203 ;
204 [label="x[3] <= 3088.5\ngini = 0.201\nsamples = 44\nvalue = [5, 39]"] ;
203 -> 204 ;
205 [label="gini = 0.0\nsamples = 23\nvalue = [0, 23]"] ;
204 -> 205 ;
206 [label="x[3] <= 3449.0\ngini = 0.363\nsamples = 21\nvalue = [5, 16]"] ;
204 -> 206 ;
207 [label="gini = 0.0\nsamples = 2\nvalue = [2, 0]"] ;
206 -> 207 ;
208 [label="x[8] <= 2.5\ngini = 0.266\nsamples = 19\nvalue = [3, 16]"] ;
206 -> 208 ;
209 [label="gini = 0.0\nsamples = 1\nvalue = [1, 0]"] ;
208 -> 209 ;
210 [label="x[7] <= 1.5\ngini = 0.198\nsamples = 18\nvalue = [2, 16]"] ;
208 -> 210 ;
211 [label="x[12] <= 2.0\ngini = 0.5\nsamples = 4\nvalue = [2, 2]"] ;
210 -> 211 ;
212 [label="gini = 0.0\nsamples = 1\nvalue = [0, 1]"] ;
211 -> 212 ;
213 [label="x[4] <= 3.5\ngini = 0.444\nsamples = 3\nvalue = [2, 1]"] ;
211 -> 213 ;
214 [label="gini = 0.0\nsamples = 2\nvalue = [2, 0]"] ;
213 -> 214 ;
215 [label="gini = 0.0\nsamples = 1\nvalue = [0, 1]"] ;
213 -> 215 ;
216 [label="gini = 0.0\nsamples = 14\nvalue = [0, 14]"] ;
210 -> 216 ;
217 [label="x[9] <= 3.5\ngini = 0.472\nsamples = 34\nvalue = [13, 21]"] ;
203 -> 217 ;
218 [label="x[6] <= 1.5\ngini = 0.278\nsamples = 6\nvalue = [5, 1]"] ;
217 -> 218 ;
219 [label="gini = 0.0\nsamples = 1\nvalue = [0, 1]"] ;
218 -> 219 ;
220 [label="gini = 0.0\nsamples = 5\nvalue = [5, 0]"] ;
218 -> 220 ;
221 [label="x[3] <= 7629.0\ngini = 0.408\nsamples = 28\nvalue = [8, 20]"] ;
217 -> 221 ;
222 [label="x[1] <= 2.5\ngini = 0.355\nsamples = 26\nvalue = [6, 20]"] ;
221 -> 222 ;
223 [label="x[12] <= 2.5\ngini = 0.188\nsamples = 19\nvalue = [2, 17]"] ;
222 -> 223 ;
224 [label="gini = 0.0\nsamples = 16\nvalue = [0, 16]"] ;
223 -> 224 ;
225 [label="x[0] <= 23.0\ngini = 0.444\nsamples = 3\nvalue = [2, 1]"] ;
223 -> 225 ;
226 [label="gini = 0.0\nsamples = 2\nvalue = [2, 0]"] ;
225 -> 226 ;
227 [label="gini = 0.0\nsamples = 1\nvalue = [0, 1]"] ;
225 -> 227 ;
228 [label="x[6] <= 2.5\ngini = 0.49\nsamples = 7\nvalue = [4, 3]"] ;
222 -> 228 ;
229 [label="gini = 0.0\nsamples = 2\nvalue = [0, 2]"] ;
228 -> 229 ;
230 [label="x[15] <= 1.5\ngini = 0.32\nsamples = 5\nvalue = [4, 1]"] ;
228 -> 230 ;
231 [label="x[0] <= 27.0\ngini = 0.5\nsamples = 2\nvalue = [1, 1]"] ;
230 -> 231 ;
232 [label="gini = 0.0\nsamples = 1\nvalue = [0, 1]"] ;
231 -> 232 ;
233 [label="gini = 0.0\nsamples = 1\nvalue = [1, 0]"] ;
231 -> 233 ;
234 [label="gini = 0.0\nsamples = 3\nvalue = [3, 0]"] ;
230 -> 234 ;
235 [label="gini = 0.0\nsamples = 2\nvalue = [2, 0]"] ;
221 -> 235 ;
236 [label="gini = 0.0\nsamples = 8\nvalue = [8, 0]"] ;
2 -> 236 ;
237 [label="x[7] <= 2.5\ngini = 0.483\nsamples = 49\nvalue = [29, 20]"] ;
1 -> 237 ;
238 [label="x[10] <= 23.0\ngini = 0.305\nsamples = 16\nvalue = [13, 3]"] ;
237 -> 238 ;
239 [label="gini = 0.0\nsamples = 1\nvalue = [0, 1]"] ;
238 -> 239 ;
240 [label="x[3] <= 421.0\ngini = 0.231\nsamples = 15\nvalue = [13, 2]"] ;
238 -> 240 ;
241 [label="gini = 0.0\nsamples = 1\nvalue = [0, 1]"] ;
240 -> 241 ;
242 [label="x[2] <= 8.0\ngini = 0.133\nsamples = 14\nvalue = [13, 1]"] ;
240 -> 242 ;
243 [label="gini = 0.0\nsamples = 13\nvalue = [13, 0]"] ;
242 -> 243 ;
244 [label="gini = 0.0\nsamples = 1\nvalue = [0, 1]"] ;
242 -> 244 ;
245 [label="x[11] <= 2.5\ngini = 0.5\nsamples = 33\nvalue = [16, 17]"] ;
237 -> 245 ;
246 [label="x[3] <= 3524.0\ngini = 0.42\nsamples = 20\nvalue = [6, 14]"] ;
245 -> 246 ;
247 [label="x[8] <= 3.5\ngini = 0.153\nsamples = 12\nvalue = [1, 11]"] ;
246 -> 247 ;
248 [label="gini = 0.0\nsamples = 11\nvalue = [0, 11]"] ;
247 -> 248 ;
249 [label="gini = 0.0\nsamples = 1\nvalue = [1, 0]"] ;
247 -> 249 ;
250 [label="x[3] <= 5720.5\ngini = 0.469\nsamples = 8\nvalue = [5, 3]"] ;
246 -> 250 ;
251 [label="gini = 0.0\nsamples = 4\nvalue = [4, 0]"] ;
250 -> 251 ;
252 [label="x[0] <= 19.0\ngini = 0.375\nsamples = 4\nvalue = [1, 3]"] ;
250 -> 252 ;
253 [label="gini = 0.0\nsamples = 1\nvalue = [1, 0]"] ;
252 -> 253 ;
254 [label="gini = 0.0\nsamples = 3\nvalue = [0, 3]"] ;
252 -> 254 ;
255 [label="x[2] <= 9.0\ngini = 0.355\nsamples = 13\nvalue = [10, 3]"] ;
245 -> 255 ;
256 [label="x[3] <= 688.0\ngini = 0.278\nsamples = 12\nvalue = [10, 2]"] ;
255 -> 256 ;
257 [label="gini = 0.0\nsamples = 1\nvalue = [0, 1]"] ;
256 -> 257 ;
258 [label="x[9] <= 3.5\ngini = 0.165\nsamples = 11\nvalue = [10, 1]"] ;
256 -> 258 ;
259 [label="gini = 0.0\nsamples = 8\nvalue = [8, 0]"] ;
258 -> 259 ;
260 [label="x[16] <= 0.5\ngini = 0.444\nsamples = 3\nvalue = [2, 1]"] ;
258 -> 260 ;
261 [label="gini = 0.0\nsamples = 1\nvalue = [0, 1]"] ;
260 -> 261 ;
262 [label="gini = 0.0\nsamples = 2\nvalue = [2, 0]"] ;
260 -> 262 ;
263 [label="gini = 0.0\nsamples = 1\nvalue = [0, 1]"] ;
255 -> 263 ;
264 [label="x[4] <= 1.5\ngini = 0.499\nsamples = 118\nvalue = [61, 57]"] ;
0 -> 264 [labeldistance=2.5, labelangle=-45, headlabel="False"] ;
265 [label="x[12] <= 2.5\ngini = 0.328\nsamples = 29\nvalue = [6, 23]"] ;
264 -> 265 ;
266 [label="x[3] <= 2364.0\ngini = 0.293\nsamples = 28\nvalue = [5, 23]"] ;
265 -> 266 ;
267 [label="gini = 0.0\nsamples = 1\nvalue = [1, 0]"] ;
266 -> 267 ;
268 [label="x[3] <= 12296.5\ngini = 0.252\nsamples = 27\nvalue = [4, 23]"] ;
266 -> 268 ;
269 [label="x[7] <= 2.5\ngini = 0.204\nsamples = 26\nvalue = [3, 23]"] ;
268 -> 269 ;
270 [label="x[3] <= 7401.5\ngini = 0.48\nsamples = 5\nvalue = [2, 3]"] ;
269 -> 270 ;
271 [label="x[0] <= 39.0\ngini = 0.444\nsamples = 3\nvalue = [2, 1]"] ;
270 -> 271 ;
272 [label="gini = 0.0\nsamples = 1\nvalue = [0, 1]"] ;
271 -> 272 ;
273 [label="gini = 0.0\nsamples = 2\nvalue = [2, 0]"] ;
271 -> 273 ;
274 [label="gini = 0.0\nsamples = 2\nvalue = [0, 2]"] ;
270 -> 274 ;
275 [label="x[10] <= 44.5\ngini = 0.091\nsamples = 21\nvalue = [1, 20]"] ;
269 -> 275 ;
276 [label="gini = 0.0\nsamples = 17\nvalue = [0, 17]"] ;
275 -> 276 ;
277 [label="x[9] <= 3.0\ngini = 0.375\nsamples = 4\nvalue = [1, 3]"] ;
275 -> 277 ;
278 [label="gini = 0.0\nsamples = 3\nvalue = [0, 3]"] ;
277 -> 278 ;
279 [label="gini = 0.0\nsamples = 1\nvalue = [1, 0]"] ;
277 -> 279 ;
280 [label="gini = 0.0\nsamples = 1\nvalue = [1, 0]"] ;
268 -> 280 ;
281 [label="gini = 0.0\nsamples = 1\nvalue = [1, 0]"] ;
265 -> 281 ;
282 [label="x[10] <= 29.5\ngini = 0.472\nsamples = 89\nvalue = [55, 34]"] ;
264 -> 282 ;
283 [label="x[3] <= 2716.5\ngini = 0.331\nsamples = 43\nvalue = [34, 9]"] ;
282 -> 283 ;
284 [label="x[16] <= 0.5\ngini = 0.48\nsamples = 5\nvalue = [2, 3]"] ;
283 -> 284 ;
285 [label="gini = 0.0\nsamples = 3\nvalue = [0, 3]"] ;
284 -> 285 ;
286 [label="gini = 0.0\nsamples = 2\nvalue = [2, 0]"] ;
284 -> 286 ;
287 [label="x[9] <= 1.5\ngini = 0.266\nsamples = 38\nvalue = [32, 6]"] ;
283 -> 287 ;
288 [label="gini = 0.0\nsamples = 2\nvalue = [0, 2]"] ;
287 -> 288 ;
289 [label="x[10] <= 21.5\ngini = 0.198\nsamples = 36\nvalue = [32, 4]"] ;
287 -> 289 ;
290 [label="x[6] <= 3.0\ngini = 0.444\nsamples = 3\nvalue = [1, 2]"] ;
289 -> 290 ;
291 [label="gini = 0.0\nsamples = 2\nvalue = [0, 2]"] ;
290 -> 291 ;
292 [label="gini = 0.0\nsamples = 1\nvalue = [1, 0]"] ;
290 -> 292 ;
293 [label="x[5] <= 4.5\ngini = 0.114\nsamples = 33\nvalue = [31, 2]"] ;
289 -> 293 ;
294 [label="x[15] <= 1.5\ngini = 0.062\nsamples = 31\nvalue = [30, 1]"] ;
293 -> 294 ;
295 [label="gini = 0.0\nsamples = 27\nvalue = [27, 0]"] ;
294 -> 295 ;
296 [label="x[6] <= 3.5\ngini = 0.375\nsamples = 4\nvalue = [3, 1]"] ;
294 -> 296 ;
297 [label="gini = 0.0\nsamples = 3\nvalue = [3, 0]"] ;
296 -> 297 ;
298 [label="gini = 0.0\nsamples = 1\nvalue = [0, 1]"] ;
296 -> 298 ;
299 [label="x[3] <= 7775.0\ngini = 0.5\nsamples = 2\nvalue = [1, 1]"] ;
293 -> 299 ;
300 [label="gini = 0.0\nsamples = 1\nvalue = [0, 1]"] ;
299 -> 300 ;
301 [label="gini = 0.0\nsamples = 1\nvalue = [1, 0]"] ;
299 -> 301 ;
302 [label="x[0] <= 47.5\ngini = 0.496\nsamples = 46\nvalue = [21, 25]"] ;
282 -> 302 ;
303 [label="x[3] <= 4625.0\ngini = 0.437\nsamples = 31\nvalue = [10, 21]"] ;
302 -> 303 ;
304 [label="x[5] <= 3.5\ngini = 0.492\nsamples = 16\nvalue = [9, 7]"] ;
303 -> 304 ;
305 [label="x[10] <= 39.0\ngini = 0.426\nsamples = 13\nvalue = [9, 4]"] ;
304 -> 305 ;
306 [label="x[5] <= 1.5\ngini = 0.5\nsamples = 8\nvalue = [4, 4]"] ;
305 -> 306 ;
307 [label="gini = 0.0\nsamples = 3\nvalue = [3, 0]"] ;
306 -> 307 ;
308 [label="x[2] <= 5.0\ngini = 0.32\nsamples = 5\nvalue = [1, 4]"] ;
306 -> 308 ;
309 [label="gini = 0.0\nsamples = 4\nvalue = [0, 4]"] ;
308 -> 309 ;
310 [label="gini = 0.0\nsamples = 1\nvalue = [1, 0]"] ;
308 -> 310 ;
311 [label="gini = 0.0\nsamples = 5\nvalue = [5, 0]"] ;
305 -> 311 ;
312 [label="gini = 0.0\nsamples = 3\nvalue = [0, 3]"] ;
304 -> 312 ;
313 [label="x[4] <= 4.5\ngini = 0.124\nsamples = 15\nvalue = [1, 14]"] ;
303 -> 313 ;
314 [label="gini = 0.0\nsamples = 14\nvalue = [0, 14]"] ;
313 -> 314 ;
315 [label="gini = 0.0\nsamples = 1\nvalue = [1, 0]"] ;
313 -> 315 ;
316 [label="x[3] <= 7386.5\ngini = 0.391\nsamples = 15\nvalue = [11, 4]"] ;
302 -> 316 ;
317 [label="x[10] <= 31.5\ngini = 0.18\nsamples = 10\nvalue = [9, 1]"] ;
316 -> 317 ;
318 [label="gini = 0.0\nsamples = 1\nvalue = [0, 1]"] ;
317 -> 318 ;
319 [label="gini = 0.0\nsamples = 9\nvalue = [9, 0]"] ;
317 -> 319 ;
320 [label="x[1] <= 3.5\ngini = 0.48\nsamples = 5\nvalue = [2, 3]"] ;
316 -> 320 ;
321 [label="gini = 0.0\nsamples = 3\nvalue = [0, 3]"] ;
320 -> 321 ;
322 [label="gini = 0.0\nsamples = 2\nvalue = [2, 0]"] ;
320 -> 322 ;
}